<?xml version="1.0"?>
<opencv_storage>
<my_svm type_id="opencv-ml-svm">
  <svm_type>C_SVC</svm_type>
  <kernel><type>RBF</type>
    <gamma>2.9999999999999999e-01</gamma></kernel>
  <C>1.</C>
  <term_criteria><epsilon>1.1920928955078125e-07</epsilon>
    <iterations>1000</iterations></term_criteria>
  <var_all>8</var_all>
  <var_count>8</var_count>
  <class_count>2</class_count>
  <class_labels type_id="opencv-matrix">
    <rows>1</rows>
    <cols>2</cols>
    <dt>i</dt>
    <data>
      0 1</data></class_labels>
  <sv_total>70</sv_total>
  <support_vectors>
    <_>
      0. 2. 0. 4.69605303e+00 0. 5.76202832e-02 0. 0.</_>
    <_>
      1. 0. 1. 1.12930548e+00 5.64652756e-02 0. 5.64652756e-02 0.</_>
    <_>
      0. 3. 1. 4.42864943e+00 0. 1.64024055e-01 5.46746850e-02 0.</_>
    <_>
      0. 0. 0. 7.02576101e-01 0. 0. 0. 0.</_>
    <_>
      0. 0. 0. 4.93827152e+00 0. 0. 0. 0.</_>
    <_>
      2. 0. 0. 4.73047304e+00 2.20022008e-01 0. 0. 0.</_>
    <_>
      2. 2. 0. 4.75499105e+00 7.25952834e-02 7.25952834e-02 0. 0.</_>
    <_>
      5. 2. 0. 3.56359649e+00 2.74122804e-01 1.09649122e-01 0. 0.</_>
    <_>
      2. 0. 0. 1.61616158e+00 1.34680137e-01 0. 0. 0.</_>
    <_>
      0. 1. 0. 1.27638686e+00 0. 4.90918010e-02 0. 0.</_>
    <_>
      2. 0. 0. 1.81086516e+00 1.34138167e-01 0. 0. 0.</_>
    <_>
      2. 3. 0. 3.45950341e+00 8.14000815e-02 1.22100122e-01 0. 0.</_>
    <_>
      0. 2. 0. 3.48162484e+00 0. 3.86847198e-01 0. 0.</_>
    <_>
      6. 1. 0. 1.53349471e+00 2.42130756e-01 4.03551236e-02 0. 0.</_>
    <_>
      8. 0. 0. 1.88679242e+00 5.59049606e-01 0. 0. 0.</_>
    <_>
      1. 3. 0. 4.88006639e+00 8.27129856e-02 2.48138964e-01 0. 0.</_>
    <_>
      8. 0. 0. 1.26336253e+00 7.77453840e-01 0. 0. 0.</_>
    <_>
      0. 1. 0. 2.25563908e+00 0. 1.50375932e-01 0. 0.</_>
    <_>
      3. 1. 0. 2.47737026e+00 1.42925203e-01 4.76417355e-02 0. 0.</_>
    <_>
      1. 2. 1. 2.10772824e+00 3.90320048e-02 7.80640095e-02
      3.90320048e-02 0.</_>
    <_>
      0. 0. 0. 9.07187700e-01 0. 0. 0. 0.</_>
    <_>
      0. 3. 0. 1.15183246e+00 0. 1.04712039e-01 0. 0.</_>
    <_>
      2. 2. 0. 1.84946239e+00 8.60215053e-02 8.60215053e-02 0. 0.</_>
    <_>
      6. 6. 0. 3.35731411e+00 1.10680684e-01 1.10680684e-01 0. 1.</_>
    <_>
      0. 0. 0. 9.66183603e-01 0. 0. 0. 1.</_>
    <_>
      0. 0. 0. 7.74526656e-01 0. 0. 0. 0.</_>
    <_>
      0. 0. 0. 1.09409189e+00 0. 0. 0. 0.</_>
    <_>
      0. 0. 1. 3.18438625e+00 0. 0. 5.13610691e-02 0.</_>
    <_>
      10. 3. 0. 3.52697086e+00 2.59336114e-01 7.78008327e-02 0. 0.</_>
    <_>
      100. 17. 0. 9.15999174e-01 4.10761952e-01 6.98295310e-02 0. 0.</_>
    <_>
      7. 0. 0. 7.91476429e-01 1.06544904e-01 0. 0. 1.</_>
    <_>
      4. 1. 0. 1.64396429e+00 1.87881634e-01 4.69704084e-02 0. 1.</_>
    <_>
      6. 0. 1. 1.23076928e+00 2.30769232e-01 0. 3.84615399e-02 0.</_>
    <_>
      1. 3. 0. 1.72467864e+00 3.13577913e-02 9.40733775e-02 0. 0.</_>
    <_>
      12. 1. 0. 1.41333330e+00 3.19999993e-01 2.66666673e-02 0. 1.</_>
    <_>
      0. 0. 0. 9.66702461e-01 0. 0. 0. 0.</_>
    <_>
      4. 0. 0. 6.93962514e-01 1.38792500e-01 0. 0. 0.</_>
    <_>
      8. 1. 1. 1.40973175e+00 1.21267244e-01 1.51584055e-02
      1.51584055e-02 1.</_>
    <_>
      0. 0. 0. 1.04547834e+00 0. 0. 0. 1.</_>
    <_>
      22. 2. 0. 1.33252573e+00 6.66262865e-01 6.05693534e-02 0. 1.</_>
    <_>
      21. 5. 0. 1.37541878e+00 3.70305061e-01 8.81678686e-02 0. 1.</_>
    <_>
      10. 6. 3. 2.18625784e+00 2.83929586e-01 1.70357749e-01
      8.51788744e-02 1.</_>
    <_>
      4. 2. 1. 6.57030225e-01 5.25624193e-02 2.62812097e-02
      1.31406048e-02 0.</_>
    <_>
      27. 1. 1. 7.31439710e-01 3.29147875e-01 1.21906623e-02
      1.21906623e-02 1.</_>
    <_>
      41. 5. 0. 9.43494022e-01 4.25090730e-01 5.18403314e-02 0. 1.</_>
    <_>
      2. 2. 0. 1.78419709e+00 5.66411763e-02 5.66411763e-02 0. 1.</_>
    <_>
      0. 1. 0. 5.61797738e-01 0. 3.51123586e-02 0. 0.</_>
    <_>
      19. 6. 0. 1.68191206e+00 2.80318677e-01 8.85216892e-02 0. 1.</_>
    <_>
      29. 3. 0. 1.10656357e+00 4.39593762e-01 4.54752147e-02 0. 1.</_>
    <_>
      36. 10. 0. 3.98287743e-01 1.34003356e-01 3.72231528e-02 0. 0.</_>
    <_>
      6. 2. 0. 1.03773582e+00 1.88679248e-01 6.28930852e-02 0. 1.</_>
    <_>
      0. 0. 0. 1.51957917e+00 0. 0. 0. 1.</_>
    <_>
      17. 6. 0. 1.40101898e+00 3.09315860e-01 1.09170303e-01 0. 1.</_>
    <_>
      115. 39. 0. 1.43830001e+00 3.24959725e-01 1.10203736e-01 0. 0.</_>
    <_>
      143. 20. 0. 1.93600166e+00 7.17223406e-01 1.00310966e-01 0. 1.</_>
    <_>
      34. 7. 0. 1.03980327e+00 3.80143106e-01 7.82647580e-02 0. 1.</_>
    <_>
      9. 4. 0. 2.06454682e+00 2.13573799e-01 9.49216932e-02 0. 1.</_>
    <_>
      0. 0. 0. 8.43881845e-01 0. 0. 0. 1.</_>
    <_>
      2. 1. 0. 4.48106378e-01 2.89100893e-02 1.44550446e-02 0. 0.</_>
    <_>
      0. 1. 0. 2.03389835e+00 0. 6.77966103e-02 0. 1.</_>
    <_>
      0. 1. 0. 1.90839696e+00 0. 4.24088202e-02 0. 1.</_>
    <_>
      2. 0. 0. 6.90448821e-01 1.15074798e-01 0. 0. 1.</_>
    <_>
      2. 1. 3. 2.33867478e+00 8.66175815e-02 4.33087908e-02
      1.29926369e-01 1.</_>
    <_>
      14. 2. 0. 2.02567196e+00 2.80786216e-01 4.01123129e-02 0. 1.</_>
    <_>
      11. 2. 0. 1.18741059e+00 1.57367662e-01 2.86123026e-02 0. 0.</_>
    <_>
      26. 2. 1. 3.37224394e-01 1.68612197e-01 1.29701691e-02
      6.48508454e-03 1.</_>
    <_>
      0. 0. 0. 1.91058457e-01 0. 0. 0. 1.</_>
    <_>
      0. 2. 0. 1.02425873e+00 0. 1.07816711e-01 0. 1.</_>
    <_>
      11. 0. 0. 4.69238788e-01 2.86757052e-01 0. 0. 1.</_>
    <_>
      3. 1. 0. 1.32187712e+00 1.98281556e-01 6.60938546e-02 0. 0.</_></support_vectors>
  <decision_functions>
    <_>
      <sv_count>70</sv_count>
      <rho>5.3897719328434635e-01</rho>
      <alpha>
        9.0474256119130084e-02 6.2262481068674980e-01
        8.9403912675209585e-01 1. 9.4345896700776843e-01
        8.3834274856227431e-01 1.8091984415431955e-01 1. 1. 1.
        4.6361851225019451e-01 7.8291825772714940e-01
        7.7021013469491334e-02 1. 1. 4.4807880419956531e-01 1.
        8.6845091163175336e-01 1. 1. 1. 1. 1. 1. 1. 1.
        8.5768116348277590e-01 5.8332630470656943e-01 1.
        -4.6102275651249935e-01 -8.8368881989739634e-01
        -4.6550985780696202e-01 -7.8998836256055860e-01 -1.
        -5.9982277805405111e-02 -1. -7.3557070386956113e-03
        -7.6935243922600316e-01 -1. -4.4114727315952812e-01
        -3.7956405614233563e-01 -4.5379102022553491e-01
        -6.5710783899146030e-02 -2.7568037999716899e-01
        -4.6102267487383186e-01 -1. -1. -2.6691874844117391e-01
        -4.3418756772841166e-01 -4.5510249510202977e-01
        -5.8744554942013572e-01 -1. -3.8001485460181139e-01
        -4.6102279898851517e-01 -4.6102280411410301e-01
        -4.5510054733296346e-01 -6.3334094231765214e-01
        -8.4886787516091600e-01 -9.8374347323131350e-01 -1.
        -6.2354320236980443e-01 -4.7073207188766780e-01
        -6.5743438532340936e-01 -4.2999002130354080e-01
        -4.3072348458923299e-01 -3.0275808591166520e-01
        -6.1810753482837200e-01 -2.4950094092462122e-01
        -3.8758092802743244e-01 -1.</alpha>
      <index>
        0 1 2 3 4 5 6 7 8 9 10 11 12 13 14 15 16 17 18 19 20 21 22 23 24
        25 26 27 28 29 30 31 32 33 34 35 36 37 38 39 40 41 42 43 44 45
        46 47 48 49 50 51 52 53 54 55 56 57 58 59 60 61 62 63 64 65 66
        67 68 69</index></_></decision_functions></my_svm>
</opencv_storage>
